<?xml version="1.0"?>
<opencv_storage>
<stage30>
  <maxWeakCount>21</maxWeakCount>
  <stageThreshold>-3.7776738405227661e-01</stageThreshold>
  <weakClassifiers>
    <_>
      <internalNodes>
        0 -1 34626 5.2045239135622978e-03</internalNodes>
      <leafValues>
        4.0808823704719543e-01 -3.9285713434219360e-01</leafValues></_>
    <_>
      <internalNodes>
        0 -1 660367 -1.2825209647417068e-02</internalNodes>
      <leafValues>
        2.6737639307975769e-01 -2.7857714891433716e-01</leafValues></_>
    <_>
      <internalNodes>
        0 -1 348334 1.8035192624665797e-04</internalNodes>
      <leafValues>
        -1.3983021676540375e-01 4.3838295340538025e-01</leafValues></_>
    <_>
      <internalNodes>
        0 -1 669350 -5.2975811995565891e-03</internalNodes>
      <leafValues>
        -2.1605218946933746e-01 2.8271722793579102e-01</leafValues></_>
    <_>
      <internalNodes>
        0 -1 187253 4.4279440771788359e-04</internalNodes>
      <leafValues>
        -1.7031385004520416e-01 4.0589001774787903e-01</leafValues></_>
    <_>
      <internalNodes>
        0 -1 246347 1.6842536861076951e-03</internalNodes>
      <leafValues>
        -1.7766699194908142e-01 3.7377998232841492e-01</leafValues></_>
    <_>
      <internalNodes>
        0 -1 337907 -5.4591521620750427e-04</internalNodes>
      <leafValues>
        -2.8020980954170227e-01 2.6132553815841675e-01</leafValues></_>
    <_>
      <internalNodes>
        0 -1 428281 2.2022273391485214e-02</internalNodes>
      <leafValues>
        7.6243750751018524e-02 -8.2738071680068970e-01</leafValues></_>
    <_>
      <internalNodes>
        0 -1 302755 -5.9463726356625557e-03</internalNodes>
      <leafValues>
        5.7132327556610107e-01 -1.2800076603889465e-01</leafValues></_>
    <_>
      <internalNodes>
        0 -1 498818 -2.0015761256217957e-03</internalNodes>
      <leafValues>
        -3.9393696188926697e-01 1.8749116361141205e-01</leafValues></_>
    <_>
      <internalNodes>
        0 -1 99810 -6.0710282996296883e-03</internalNodes>
      <leafValues>
        8.2016277313232422e-01 -8.6209490895271301e-02</leafValues></_>
    <_>
      <internalNodes>
        0 -1 676793 5.2484660409390926e-03</internalNodes>
      <leafValues>
        -4.9590233713388443e-02 8.0973267555236816e-01</leafValues></_>
    <_>
      <internalNodes>
        0 -1 613491 -1.7578153347130865e-04</internalNodes>
      <leafValues>
        3.1228452920913696e-01 -1.9088904559612274e-01</leafValues></_>
    <_>
      <internalNodes>
        0 -1 689128 -3.2435789762530476e-05</internalNodes>
      <leafValues>
        2.9618489742279053e-01 -2.1398918330669403e-01</leafValues></_>
    <_>
      <internalNodes>
        0 -1 18808 -8.6299219401553273e-04</internalNodes>
      <leafValues>
        -4.2822891473770142e-01 1.8253585696220398e-01</leafValues></_>
    <_>
      <internalNodes>
        0 -1 502827 2.7264840900897980e-04</internalNodes>
      <leafValues>
        1.7604926228523254e-01 -3.8787141442298889e-01</leafValues></_>
    <_>
      <internalNodes>
        0 -1 91734 -1.7656613141298294e-02</internalNodes>
      <leafValues>
        9.7474712133407593e-01 -7.5382888317108154e-02</leafValues></_>
    <_>
      <internalNodes>
        0 -1 536836 -7.4956603348255157e-03</internalNodes>
      <leafValues>
        4.8467189073562622e-01 -1.0597664117813110e-01</leafValues></_>
    <_>
      <internalNodes>
        0 -1 266750 8.2489453256130219e-02</internalNodes>
      <leafValues>
        9.5026463270187378e-02 -8.5007572174072266e-01</leafValues></_>
    <_>
      <internalNodes>
        0 -1 329663 5.3207902237772942e-03</internalNodes>
      <leafValues>
        -1.4185900986194611e-01 5.4327487945556641e-01</leafValues></_>
    <_>
      <internalNodes>
        0 -1 247747 1.2702392996288836e-04</internalNodes>
      <leafValues>
        -2.2414818406105042e-01 3.3095064759254456e-01</leafValues></_></weakClassifiers></stage30>
</opencv_storage>
