<?xml version="1.0"?>
<opencv_storage>
<stage22>
  <maxWeakCount>17</maxWeakCount>
  <stageThreshold>-4.6766775846481323e-01</stageThreshold>
  <weakClassifiers>
    <_>
      <internalNodes>
        0 -1 610670 -1.9866470247507095e-02</internalNodes>
      <leafValues>
        5.9459459781646729e-01 7.8947365283966064e-02</leafValues></_>
    <_>
      <internalNodes>
        0 -1 345918 -8.7138444185256958e-02</internalNodes>
      <leafValues>
        4.8656648397445679e-01 -1.4129702746868134e-01</leafValues></_>
    <_>
      <internalNodes>
        0 -1 57637 1.0275345295667648e-02</internalNodes>
      <leafValues>
        -7.6554581522941589e-02 8.6234045028686523e-01</leafValues></_>
    <_>
      <internalNodes>
        0 -1 211282 1.2966959038749337e-03</internalNodes>
      <leafValues>
        -2.5465208292007446e-01 2.6963615417480469e-01</leafValues></_>
    <_>
      <internalNodes>
        0 -1 639412 5.3198955953121185e-02</internalNodes>
      <leafValues>
        -1.9308246672153473e-01 5.3720396757125854e-01</leafValues></_>
    <_>
      <internalNodes>
        0 -1 359945 -2.0698711276054382e-02</internalNodes>
      <leafValues>
        6.5643775463104248e-01 -1.2203709036111832e-01</leafValues></_>
    <_>
      <internalNodes>
        0 -1 445171 -1.0073450207710266e-01</internalNodes>
      <leafValues>
        9.1429394483566284e-01 -6.7811712622642517e-02</leafValues></_>
    <_>
      <internalNodes>
        0 -1 338586 -1.1527843773365021e-01</internalNodes>
      <leafValues>
        7.7224397659301758e-01 -8.8999383151531219e-02</leafValues></_>
    <_>
      <internalNodes>
        0 -1 643906 -3.6880664527416229e-02</internalNodes>
      <leafValues>
        2.3465587198734283e-01 -3.4713628888130188e-01</leafValues></_>
    <_>
      <internalNodes>
        0 -1 683992 -1.1148399207741022e-03</internalNodes>
      <leafValues>
        -7.0778137445449829e-01 1.1444248259067535e-01</leafValues></_>
    <_>
      <internalNodes>
        0 -1 86989 -2.5427242740988731e-02</internalNodes>
      <leafValues>
        5.6963372230529785e-01 -1.3078781962394714e-01</leafValues></_>
    <_>
      <internalNodes>
        0 -1 35551 1.3221847439126577e-05</internalNodes>
      <leafValues>
        -2.9607042670249939e-01 2.6456114649772644e-01</leafValues></_>
    <_>
      <internalNodes>
        0 -1 6606 -6.0411362028389703e-06</internalNodes>
      <leafValues>
        3.1461042165756226e-01 -2.2654473781585693e-01</leafValues></_>
    <_>
      <internalNodes>
        0 -1 25921 -2.7720361948013306e-01</internalNodes>
      <leafValues>
        -9.4607651233673096e-02 7.8899461030960083e-01</leafValues></_>
    <_>
      <internalNodes>
        0 -1 600617 -2.6010890724137425e-04</internalNodes>
      <leafValues>
        4.5266252756118774e-01 -1.8142513930797577e-01</leafValues></_>
    <_>
      <internalNodes>
        0 -1 648531 3.5473518073558807e-04</internalNodes>
      <leafValues>
        -1.6865815222263336e-01 4.1658970713615417e-01</leafValues></_>
    <_>
      <internalNodes>
        0 -1 684104 2.6359402108937502e-03</internalNodes>
      <leafValues>
        1.0253196954727173e-01 -8.2752889394760132e-01</leafValues></_></weakClassifiers></stage22>
</opencv_storage>
