<?xml version="1.0"?>
<opencv_storage>
<stage8>
  <maxWeakCount>9</maxWeakCount>
  <stageThreshold>-7.7425301074981689e-01</stageThreshold>
  <weakClassifiers>
    <_>
      <internalNodes>
        0 -1 195465 1.5839716419577599e-02</internalNodes>
      <leafValues>
        -5.4878050088882446e-01 6.6513758897781372e-01</leafValues></_>
    <_>
      <internalNodes>
        0 -1 591613 -9.2140227556228638e-02</internalNodes>
      <leafValues>
        -6.6111212968826294e-01 3.3315831422805786e-01</leafValues></_>
    <_>
      <internalNodes>
        0 -1 27044 5.8042219279741403e-06</internalNodes>
      <leafValues>
        -2.7949565649032593e-01 6.1741179227828979e-01</leafValues></_>
    <_>
      <internalNodes>
        0 -1 132080 -5.8042219279741403e-06</internalNodes>
      <leafValues>
        5.7561081647872925e-01 -2.9170164465904236e-01</leafValues></_>
    <_>
      <internalNodes>
        0 -1 15960 -5.4889951570658013e-06</internalNodes>
      <leafValues>
        5.7720869779586792e-01 -2.5472247600555420e-01</leafValues></_>
    <_>
      <internalNodes>
        0 -1 21473 8.6296968162059784e-02</internalNodes>
      <leafValues>
        -3.8026899099349976e-01 4.3926012516021729e-01</leafValues></_>
    <_>
      <internalNodes>
        0 -1 15960 7.9936553447623737e-06</internalNodes>
      <leafValues>
        -3.6634704470634460e-01 4.7609680891036987e-01</leafValues></_>
    <_>
      <internalNodes>
        0 -1 17627 -8.3725662989309058e-06</internalNodes>
      <leafValues>
        5.3880840539932251e-01 -2.4630565941333771e-01</leafValues></_>
    <_>
      <internalNodes>
        0 -1 505330 -5.8547775552142411e-06</internalNodes>
      <leafValues>
        4.9288186430931091e-01 -2.9388672113418579e-01</leafValues></_></weakClassifiers></stage8>
</opencv_storage>
