<?xml version="1.0"?>
<opencv_storage>
<stage17>
  <maxWeakCount>18</maxWeakCount>
  <stageThreshold>-7.0491892099380493e-01</stageThreshold>
  <weakClassifiers>
    <_>
      <internalNodes>
        0 -1 333087 7.7551476657390594e-02</internalNodes>
      <leafValues>
        -1.4285714924335480e-01 6.0313314199447632e-01</leafValues></_>
    <_>
      <internalNodes>
        0 -1 464574 -6.6917672753334045e-02</internalNodes>
      <leafValues>
        6.1219817399978638e-01 -1.3354727625846863e-01</leafValues></_>
    <_>
      <internalNodes>
        0 -1 6843 -1.7256727442145348e-03</internalNodes>
      <leafValues>
        -4.6554142236709595e-01 2.0644325017929077e-01</leafValues></_>
    <_>
      <internalNodes>
        0 -1 38982 2.9521542601287365e-03</internalNodes>
      <leafValues>
        1.4485436677932739e-01 -5.5199474096298218e-01</leafValues></_>
    <_>
      <internalNodes>
        0 -1 289358 -9.5256388187408447e-02</internalNodes>
      <leafValues>
        7.6184630393981934e-01 -1.0809782892465591e-01</leafValues></_>
    <_>
      <internalNodes>
        0 -1 624282 6.0319772455841303e-04</internalNodes>
      <leafValues>
        2.7618768811225891e-01 -3.0141907930374146e-01</leafValues></_>
    <_>
      <internalNodes>
        0 -1 644083 -3.0544515699148178e-02</internalNodes>
      <leafValues>
        5.7884573936462402e-01 -1.5538014471530914e-01</leafValues></_>
    <_>
      <internalNodes>
        0 -1 469511 -4.0327213355340064e-04</internalNodes>
      <leafValues>
        -5.0494325160980225e-01 1.7651888728141785e-01</leafValues></_>
    <_>
      <internalNodes>
        0 -1 607526 -3.8493236061185598e-03</internalNodes>
      <leafValues>
        8.7109583616256714e-01 -1.2468694895505905e-01</leafValues></_>
    <_>
      <internalNodes>
        0 -1 275377 3.1512486748397350e-04</internalNodes>
      <leafValues>
        -1.1171783506870270e-01 5.9110027551651001e-01</leafValues></_>
    <_>
      <internalNodes>
        0 -1 678515 1.9635083153843880e-03</internalNodes>
      <leafValues>
        1.4471320807933807e-01 -6.1818271875381470e-01</leafValues></_>
    <_>
      <internalNodes>
        0 -1 105366 -2.0508855581283569e-02</internalNodes>
      <leafValues>
        8.0534064769744873e-01 -1.1175270378589630e-01</leafValues></_>
    <_>
      <internalNodes>
        0 -1 700250 -3.1107268296182156e-03</internalNodes>
      <leafValues>
        -6.3757044076919556e-01 1.6081243753433228e-01</leafValues></_>
    <_>
      <internalNodes>
        0 -1 38067 1.7339843511581421e-01</internalNodes>
      <leafValues>
        8.8958851993083954e-02 -8.7146139144897461e-01</leafValues></_>
    <_>
      <internalNodes>
        0 -1 426024 4.0617119520902634e-03</internalNodes>
      <leafValues>
        9.4947278499603271e-02 -7.0701253414154053e-01</leafValues></_>
    <_>
      <internalNodes>
        0 -1 445050 5.0118956714868546e-03</internalNodes>
      <leafValues>
        -1.2162388116121292e-01 7.6341897249221802e-01</leafValues></_>
    <_>
      <internalNodes>
        0 -1 689150 3.8168677128851414e-03</internalNodes>
      <leafValues>
        1.5144999325275421e-01 -6.1416429281234741e-01</leafValues></_>
    <_>
      <internalNodes>
        0 -1 626102 -1.8323446856811643e-03</internalNodes>
      <leafValues>
        -5.6107062101364136e-01 1.3855183124542236e-01</leafValues></_></weakClassifiers></stage17>
</opencv_storage>
