<?xml version="1.0"?>
<opencv_storage>
<cascade>
  <stageType>BOOST</stageType>
  <featureType>HAAR</featureType>
  <height>30</height>
  <width>40</width>
  <stageParams>
    <boostType>GAB</boostType>
    <minHitRate>9.9500000476837158e-01</minHitRate>
    <maxFalseAlarm>5.0000000000000000e-01</maxFalseAlarm>
    <weightTrimRate>9.4999999999999996e-01</weightTrimRate>
    <maxDepth>1</maxDepth>
    <maxWeakCount>100</maxWeakCount></stageParams>
  <featureParams>
    <maxCatCount>0</maxCatCount>
    <featSize>1</featSize>
    <mode>BASIC</mode></featureParams>
  <stageNum>10</stageNum>
  <stages>
    <!-- stage 0 -->
    <_>
      <maxWeakCount>3</maxWeakCount>
      <stageThreshold>-6.2134939432144165e-01</stageThreshold>
      <weakClassifiers>
        <_>
          <internalNodes>
            0 -1 23 -7.0444880984723568e-03</internalNodes>
          <leafValues>
            9.3513512611389160e-01 -6.3478261232376099e-01</leafValues></_>
        <_>
          <internalNodes>
            0 -1 10 -4.1698096320033073e-03</internalNodes>
          <leafValues>
            -6.0477530956268311e-01 8.8561612367630005e-01</leafValues></_>
        <_>
          <internalNodes>
            0 -1 15 -4.3905037641525269e-01</internalNodes>
          <leafValues>
            -9.6909773349761963e-01 6.1820852756500244e-01</leafValues></_></weakClassifiers></_>
    <!-- stage 1 -->
    <_>
      <maxWeakCount>1</maxWeakCount>
      <stageThreshold>8.6915886402130127e-01</stageThreshold>
      <weakClassifiers>
        <_>
          <internalNodes>
            0 -1 16 -4.4985830783843994e-02</internalNodes>
          <leafValues>
            -1. 8.6915886402130127e-01</leafValues></_></weakClassifiers></_>
    <!-- stage 2 -->
    <_>
      <maxWeakCount>4</maxWeakCount>
      <stageThreshold>-5.7473248243331909e-01</stageThreshold>
      <weakClassifiers>
        <_>
          <internalNodes>
            0 -1 29 1.2029459699988365e-02</internalNodes>
          <leafValues>
            -4.3307086825370789e-01 8.9595377445220947e-01</leafValues></_>
        <_>
          <internalNodes>
            0 -1 37 -5.0911307334899902e-03</internalNodes>
          <leafValues>
            8.8771498203277588e-01 -4.1850581765174866e-01</leafValues></_>
        <_>
          <internalNodes>
            0 -1 8 -1.0817896574735641e-02</internalNodes>
          <leafValues>
            -4.8347803950309753e-01 6.7065596580505371e-01</leafValues></_>
        <_>
          <internalNodes>
            0 -1 44 -2.1809514146298170e-03</internalNodes>
          <leafValues>
            8.8714963197708130e-01 -3.9381176233291626e-01</leafValues></_></weakClassifiers></_>
    <!-- stage 3 -->
    <_>
      <maxWeakCount>7</maxWeakCount>
      <stageThreshold>-4.3635568022727966e-01</stageThreshold>
      <weakClassifiers>
        <_>
          <internalNodes>
            0 -1 24 2.1606994792819023e-02</internalNodes>
          <leafValues>
            -3.6363637447357178e-01 8.8095235824584961e-01</leafValues></_>
        <_>
          <internalNodes>
            0 -1 32 -2.5434393435716629e-02</internalNodes>
          <leafValues>
            8.5972940921783447e-01 -3.5256475210189819e-01</leafValues></_>
        <_>
          <internalNodes>
            0 -1 35 -3.5916864871978760e-02</internalNodes>
          <leafValues>
            -6.2483793497085571e-01 5.3021275997161865e-01</leafValues></_>
        <_>
          <internalNodes>
            0 -1 30 1.3004662469029427e-02</internalNodes>
          <leafValues>
            -3.9231342077255249e-01 8.2682734727859497e-01</leafValues></_>
        <_>
          <internalNodes>
            0 -1 28 3.3723425585776567e-03</internalNodes>
          <leafValues>
            -3.7127298116683960e-01 9.5792150497436523e-01</leafValues></_>
        <_>
          <internalNodes>
            0 -1 33 -1.2237777002155781e-02</internalNodes>
          <leafValues>
            8.7791359424591064e-01 -2.9494589567184448e-01</leafValues></_>
        <_>
          <internalNodes>
            0 -1 51 1.1487164010759443e-04</internalNodes>
          <leafValues>
            -3.6469444632530212e-01 8.7510818243026733e-01</leafValues></_></weakClassifiers></_>
    <!-- stage 4 -->
    <_>
      <maxWeakCount>5</maxWeakCount>
      <stageThreshold>-4.3166220188140869e-01</stageThreshold>
      <weakClassifiers>
        <_>
          <internalNodes>
            0 -1 18 3.2192908227443695e-02</internalNodes>
          <leafValues>
            -5.1724135875701904e-01 7.6826196908950806e-01</leafValues></_>
        <_>
          <internalNodes>
            0 -1 19 -6.6004127264022827e-02</internalNodes>
          <leafValues>
            -8.0171674489974976e-01 4.9847763776779175e-01</leafValues></_>
        <_>
          <internalNodes>
            0 -1 25 -3.5684667527675629e-03</internalNodes>
          <leafValues>
            -6.9575357437133789e-01 4.8557609319686890e-01</leafValues></_>
        <_>
          <internalNodes>
            0 -1 36 -2.5944944471120834e-02</internalNodes>
          <leafValues>
            8.1270372867584229e-01 -4.6390667557716370e-01</leafValues></_>
        <_>
          <internalNodes>
            0 -1 47 6.6087319282814860e-05</internalNodes>
          <leafValues>
            -3.9142289757728577e-01 8.6562645435333252e-01</leafValues></_></weakClassifiers></_>
    <!-- stage 5 -->
    <_>
      <maxWeakCount>5</maxWeakCount>
      <stageThreshold>-7.4263918399810791e-01</stageThreshold>
      <weakClassifiers>
        <_>
          <internalNodes>
            0 -1 4 -1.1769899725914001e-01</internalNodes>
          <leafValues>
            -6.4634144306182861e-01 7.0183485746383667e-01</leafValues></_>
        <_>
          <internalNodes>
            0 -1 2 -5.3701218217611313e-02</internalNodes>
          <leafValues>
            8.7875247001647949e-01 -3.7446010112762451e-01</leafValues></_>
        <_>
          <internalNodes>
            0 -1 46 1.2404314475134015e-03</internalNodes>
          <leafValues>
            -2.2859446704387665e-01 8.9975726604461670e-01</leafValues></_>
        <_>
          <internalNodes>
            0 -1 17 3.0543343164026737e-03</internalNodes>
          <leafValues>
            -3.2720351219177246e-01 7.5359594821929932e-01</leafValues></_>
        <_>
          <internalNodes>
            0 -1 43 -2.9516790527850389e-04</internalNodes>
          <leafValues>
            9.1030853986740112e-01 -2.9439136385917664e-01</leafValues></_></weakClassifiers></_>
    <!-- stage 6 -->
    <_>
      <maxWeakCount>6</maxWeakCount>
      <stageThreshold>-1.0025659799575806e+00</stageThreshold>
      <weakClassifiers>
        <_>
          <internalNodes>
            0 -1 13 2.4659588932991028e-02</internalNodes>
          <leafValues>
            -4.9090909957885742e-01 8.1052631139755249e-01</leafValues></_>
        <_>
          <internalNodes>
            0 -1 34 -3.0458535999059677e-02</internalNodes>
          <leafValues>
            -5.6852287054061890e-01 7.2489398717880249e-01</leafValues></_>
        <_>
          <internalNodes>
            0 -1 39 -2.6390284299850464e-02</internalNodes>
          <leafValues>
            8.8434308767318726e-01 -3.4066140651702881e-01</leafValues></_>
        <_>
          <internalNodes>
            0 -1 11 1.6473045945167542e-01</internalNodes>
          <leafValues>
            3.4395903348922729e-01 -9.1185712814331055e-01</leafValues></_>
        <_>
          <internalNodes>
            0 -1 6 -3.1282264739274979e-02</internalNodes>
          <leafValues>
            -5.4957616329193115e-01 4.1959723830223083e-01</leafValues></_>
        <_>
          <internalNodes>
            0 -1 40 -3.3643920905888081e-03</internalNodes>
          <leafValues>
            8.0352693796157837e-01 -3.6602884531021118e-01</leafValues></_></weakClassifiers></_>
    <!-- stage 7 -->
    <_>
      <maxWeakCount>7</maxWeakCount>
      <stageThreshold>-8.0813360214233398e-01</stageThreshold>
      <weakClassifiers>
        <_>
          <internalNodes>
            0 -1 26 -4.7450315207242966e-02</internalNodes>
          <leafValues>
            8.3516484498977661e-01 -4.4067797064781189e-01</leafValues></_>
        <_>
          <internalNodes>
            0 -1 50 -4.4876961037516594e-03</internalNodes>
          <leafValues>
            -7.4394494295120239e-01 5.9845161437988281e-01</leafValues></_>
        <_>
          <internalNodes>
            0 -1 0 8.2694888114929199e-02</internalNodes>
          <leafValues>
            -3.9905229210853577e-01 7.6809340715408325e-01</leafValues></_>
        <_>
          <internalNodes>
            0 -1 38 -1.2195914983749390e-02</internalNodes>
          <leafValues>
            -2.8010711073875427e-01 6.6286492347717285e-01</leafValues></_>
        <_>
          <internalNodes>
            0 -1 49 -3.2328262925148010e-02</internalNodes>
          <leafValues>
            6.6813105344772339e-01 -3.0351385474205017e-01</leafValues></_>
        <_>
          <internalNodes>
            0 -1 42 -1.7312865704298019e-02</internalNodes>
          <leafValues>
            8.8790988922119141e-01 -2.0263083279132843e-01</leafValues></_>
        <_>
          <internalNodes>
            0 -1 5 5.8716489002108574e-03</internalNodes>
          <leafValues>
            -4.8176178336143494e-01 3.9464768767356873e-01</leafValues></_></weakClassifiers></_>
    <!-- stage 8 -->
    <_>
      <maxWeakCount>5</maxWeakCount>
      <stageThreshold>-1.2278317213058472e+00</stageThreshold>
      <weakClassifiers>
        <_>
          <internalNodes>
            0 -1 9 5.6014452129602432e-03</internalNodes>
          <leafValues>
            -4.7511312365531921e-01 8.0474936962127686e-01</leafValues></_>
        <_>
          <internalNodes>
            0 -1 41 -2.3962475359439850e-02</internalNodes>
          <leafValues>
            7.0753604173660278e-01 -4.6463420987129211e-01</leafValues></_>
        <_>
          <internalNodes>
            0 -1 3 -1.0517612099647522e-02</internalNodes>
          <leafValues>
            5.5901819467544556e-01 -4.6875873208045959e-01</leafValues></_>
        <_>
          <internalNodes>
            0 -1 7 5.9664044529199600e-03</internalNodes>
          <leafValues>
            -4.5099666714668274e-01 6.4726990461349487e-01</leafValues></_>
        <_>
          <internalNodes>
            0 -1 21 -3.5077952779829502e-03</internalNodes>
          <leafValues>
            5.2337092161178589e-01 -4.6659559011459351e-01</leafValues></_></weakClassifiers></_>
    <!-- stage 9 -->
    <_>
      <maxWeakCount>9</maxWeakCount>
      <stageThreshold>-4.3576595187187195e-01</stageThreshold>
      <weakClassifiers>
        <_>
          <internalNodes>
            0 -1 31 -1.0631141066551208e-01</internalNodes>
          <leafValues>
            9.2226147651672363e-01 -1.9242902100086212e-01</leafValues></_>
        <_>
          <internalNodes>
            0 -1 1 8.0451369285583496e-02</internalNodes>
          <leafValues>
            -3.2213661074638367e-01 6.6400265693664551e-01</leafValues></_>
        <_>
          <internalNodes>
            0 -1 27 -6.3052356243133545e-02</internalNodes>
          <leafValues>
            6.9338953495025635e-01 -2.8509128093719482e-01</leafValues></_>
        <_>
          <internalNodes>
            0 -1 20 -1.4143951237201691e-01</internalNodes>
          <leafValues>
            9.8021018505096436e-01 -1.0791674256324768e-01</leafValues></_>
        <_>
          <internalNodes>
            0 -1 48 -5.0416082143783569e-02</internalNodes>
          <leafValues>
            8.2820630073547363e-01 -1.4814190566539764e-01</leafValues></_>
        <_>
          <internalNodes>
            0 -1 12 -9.0978783191530965e-06</internalNodes>
          <leafValues>
            5.5519229173660278e-01 -2.8918072581291199e-01</leafValues></_>
        <_>
          <internalNodes>
            0 -1 45 -2.1143190562725067e-02</internalNodes>
          <leafValues>
            7.6609098911285400e-01 -2.1697206795215607e-01</leafValues></_>
        <_>
          <internalNodes>
            0 -1 22 7.4408836662769318e-03</internalNodes>
          <leafValues>
            -1.6495294868946075e-01 7.2050684690475464e-01</leafValues></_>
        <_>
          <internalNodes>
            0 -1 14 1.4562712749466300e-05</internalNodes>
          <leafValues>
            -3.1308561563491821e-01 4.4668233394622803e-01</leafValues></_></weakClassifiers></_></stages>
  <features>
    <_>
      <rects>
        <_>
          0 5 18 20 -1.</_>
        <_>
          9 5 9 20 2.</_></rects>
      <tilted>0</tilted></_>
    <_>
      <rects>
        <_>
          0 8 24 11 -1.</_>
        <_>
          12 8 12 11 2.</_></rects>
      <tilted>0</tilted></_>
    <_>
      <rects>
        <_>
          0 13 24 16 -1.</_>
        <_>
          0 13 12 8 2.</_>
        <_>
          12 21 12 8 2.</_></rects>
      <tilted>0</tilted></_>
    <_>
      <rects>
        <_>
          0 18 30 12 -1.</_>
        <_>
          0 24 30 6 2.</_></rects>
      <tilted>0</tilted></_>
    <_>
      <rects>
        <_>
          0 24 27 3 -1.</_>
        <_>
          9 24 9 3 2.</_></rects>
      <tilted>0</tilted></_>
    <_>
      <rects>
        <_>
          1 6 16 7 -1.</_>
        <_>
          9 6 8 7 2.</_></rects>
      <tilted>0</tilted></_>
    <_>
      <rects>
        <_>
          1 7 2 12 -1.</_>
        <_>
          1 11 2 4 2.</_></rects>
      <tilted>0</tilted></_>
    <_>
      <rects>
        <_>
          1 8 18 2 -1.</_>
        <_>
          10 8 9 2 2.</_></rects>
      <tilted>0</tilted></_>
    <_>
      <rects>
        <_>
          1 10 3 3 -1.</_>
        <_>
          2 10 1 3 2.</_></rects>
      <tilted>0</tilted></_>
    <_>
      <rects>
        <_>
          1 12 20 2 -1.</_>
        <_>
          11 12 10 2 2.</_></rects>
      <tilted>0</tilted></_>
    <_>
      <rects>
        <_>
          1 24 1 3 -1.</_>
        <_>
          1 25 1 1 2.</_></rects>
      <tilted>0</tilted></_>
    <_>
      <rects>
        <_>
          2 0 11 30 -1.</_>
        <_>
          2 15 11 15 2.</_></rects>
      <tilted>0</tilted></_>
    <_>
      <rects>
        <_>
          2 8 1 2 -1.</_>
        <_>
          2 9 1 1 2.</_></rects>
      <tilted>0</tilted></_>
    <_>
      <rects>
        <_>
          5 3 16 16 -1.</_>
        <_>
          13 3 8 16 2.</_></rects>
      <tilted>0</tilted></_>
    <_>
      <rects>
        <_>
          5 25 4 2 -1.</_>
        <_>
          5 25 2 1 2.</_>
        <_>
          7 26 2 1 2.</_></rects>
      <tilted>0</tilted></_>
    <_>
      <rects>
        <_>
          6 0 34 30 -1.</_>
        <_>
          23 0 17 30 2.</_></rects>
      <tilted>0</tilted></_>
    <_>
      <rects>
        <_>
          6 21 3 6 -1.</_>
        <_>
          6 23 3 2 2.</_></rects>
      <tilted>0</tilted></_>
    <_>
      <rects>
        <_>
          7 5 30 2 -1.</_>
        <_>
          7 6 30 1 2.</_></rects>
      <tilted>0</tilted></_>
    <_>
      <rects>
        <_>
          11 0 15 16 -1.</_>
        <_>
          11 8 15 8 2.</_></rects>
      <tilted>0</tilted></_>
    <_>
      <rects>
        <_>
          11 27 14 3 -1.</_>
        <_>
          11 28 14 1 2.</_></rects>
      <tilted>0</tilted></_>
    <_>
      <rects>
        <_>
          12 3 24 15 -1.</_>
        <_>
          24 3 12 15 2.</_></rects>
      <tilted>0</tilted></_>
    <_>
      <rects>
        <_>
          12 16 28 1 -1.</_>
        <_>
          26 16 14 1 2.</_></rects>
      <tilted>0</tilted></_>
    <_>
      <rects>
        <_>
          12 22 12 6 -1.</_>
        <_>
          12 22 6 3 2.</_>
        <_>
          18 25 6 3 2.</_></rects>
      <tilted>0</tilted></_>
    <_>
      <rects>
        <_>
          13 10 15 20 -1.</_>
        <_>
          13 20 15 10 2.</_></rects>
      <tilted>0</tilted></_>
    <_>
      <rects>
        <_>
          17 0 5 16 -1.</_>
        <_>
          17 8 5 8 2.</_></rects>
      <tilted>0</tilted></_>
    <_>
      <rects>
        <_>
          17 0 22 1 -1.</_>
        <_>
          28 0 11 1 2.</_></rects>
      <tilted>0</tilted></_>
    <_>
      <rects>
        <_>
          18 8 22 9 -1.</_>
        <_>
          29 8 11 9 2.</_></rects>
      <tilted>0</tilted></_>
    <_>
      <rects>
        <_>
          18 11 14 18 -1.</_>
        <_>
          18 20 14 9 2.</_></rects>
      <tilted>0</tilted></_>
    <_>
      <rects>
        <_>
          18 15 12 4 -1.</_>
        <_>
          18 15 6 2 2.</_>
        <_>
          24 17 6 2 2.</_></rects>
      <tilted>0</tilted></_>
    <_>
      <rects>
        <_>
          19 0 4 14 -1.</_>
        <_>
          19 7 4 7 2.</_></rects>
      <tilted>0</tilted></_>
    <_>
      <rects>
        <_>
          20 1 6 10 -1.</_>
        <_>
          20 6 6 5 2.</_></rects>
      <tilted>0</tilted></_>
    <_>
      <rects>
        <_>
          20 6 20 15 -1.</_>
        <_>
          30 6 10 15 2.</_></rects>
      <tilted>0</tilted></_>
    <_>
      <rects>
        <_>
          20 11 9 16 -1.</_>
        <_>
          20 19 9 8 2.</_></rects>
      <tilted>0</tilted></_>
    <_>
      <rects>
        <_>
          20 18 5 12 -1.</_>
        <_>
          20 24 5 6 2.</_></rects>
      <tilted>0</tilted></_>
    <_>
      <rects>
        <_>
          21 25 6 4 -1.</_>
        <_>
          23 25 2 4 2.</_></rects>
      <tilted>0</tilted></_>
    <_>
      <rects>
        <_>
          22 24 8 3 -1.</_>
        <_>
          22 25 8 1 2.</_></rects>
      <tilted>0</tilted></_>
    <_>
      <rects>
        <_>
          23 0 16 16 -1.</_>
        <_>
          23 0 8 8 2.</_>
        <_>
          31 8 8 8 2.</_></rects>
      <tilted>0</tilted></_>
    <_>
      <rects>
        <_>
          23 14 2 16 -1.</_>
        <_>
          23 22 2 8 2.</_></rects>
      <tilted>0</tilted></_>
    <_>
      <rects>
        <_>
          23 28 12 1 -1.</_>
        <_>
          27 28 4 1 2.</_></rects>
      <tilted>0</tilted></_>
    <_>
      <rects>
        <_>
          24 1 16 14 -1.</_>
        <_>
          24 1 8 7 2.</_>
        <_>
          32 8 8 7 2.</_></rects>
      <tilted>0</tilted></_>
    <_>
      <rects>
        <_>
          24 10 6 6 -1.</_>
        <_>
          24 10 3 3 2.</_>
        <_>
          27 13 3 3 2.</_></rects>
      <tilted>0</tilted></_>
    <_>
      <rects>
        <_>
          26 4 14 14 -1.</_>
        <_>
          33 4 7 14 2.</_></rects>
      <tilted>0</tilted></_>
    <_>
      <rects>
        <_>
          26 12 8 6 -1.</_>
        <_>
          30 12 4 6 2.</_></rects>
      <tilted>0</tilted></_>
    <_>
      <rects>
        <_>
          27 24 6 2 -1.</_>
        <_>
          27 24 3 1 2.</_>
        <_>
          30 25 3 1 2.</_></rects>
      <tilted>0</tilted></_>
    <_>
      <rects>
        <_>
          29 0 4 16 -1.</_>
        <_>
          29 0 2 8 2.</_>
        <_>
          31 8 2 8 2.</_></rects>
      <tilted>0</tilted></_>
    <_>
      <rects>
        <_>
          29 3 8 16 -1.</_>
        <_>
          29 11 8 8 2.</_></rects>
      <tilted>0</tilted></_>
    <_>
      <rects>
        <_>
          29 20 8 4 -1.</_>
        <_>
          29 20 4 2 2.</_>
        <_>
          33 22 4 2 2.</_></rects>
      <tilted>0</tilted></_>
    <_>
      <rects>
        <_>
          29 23 2 2 -1.</_>
        <_>
          29 23 1 1 2.</_>
        <_>
          30 24 1 1 2.</_></rects>
      <tilted>0</tilted></_>
    <_>
      <rects>
        <_>
          30 4 10 20 -1.</_>
        <_>
          35 4 5 20 2.</_></rects>
      <tilted>0</tilted></_>
    <_>
      <rects>
        <_>
          30 6 10 19 -1.</_>
        <_>
          35 6 5 19 2.</_></rects>
      <tilted>0</tilted></_>
    <_>
      <rects>
        <_>
          37 26 1 3 -1.</_>
        <_>
          37 27 1 1 2.</_></rects>
      <tilted>0</tilted></_>
    <_>
      <rects>
        <_>
          38 2 2 2 -1.</_>
        <_>
          39 2 1 2 2.</_></rects>
      <tilted>0</tilted></_></features></cascade>
</opencv_storage>
