<?xml version="1.0"?>
<opencv_storage>
<stage59>
  <maxWeakCount>29</maxWeakCount>
  <stageThreshold>-6.0787898302078247e-01</stageThreshold>
  <weakClassifiers>
    <_>
      <internalNodes>
        0 -1 6132 2.7367153763771057e-01</internalNodes>
      <leafValues>
        3.7261697649955750e-01 -6.5217393636703491e-01</leafValues></_>
    <_>
      <internalNodes>
        0 -1 425617 1.5505205374211073e-03</internalNodes>
      <leafValues>
        -7.8268460929393768e-02 4.9933519959449768e-01</leafValues></_>
    <_>
      <internalNodes>
        0 -1 477217 2.6821380481123924e-02</internalNodes>
      <leafValues>
        -9.2536166310310364e-02 7.2221386432647705e-01</leafValues></_>
    <_>
      <internalNodes>
        0 -1 234284 4.7833956778049469e-02</internalNodes>
      <leafValues>
        -1.9653037190437317e-01 3.4134685993194580e-01</leafValues></_>
    <_>
      <internalNodes>
        0 -1 392377 -1.1234600096940994e-03</internalNodes>
      <leafValues>
        4.0878620743751526e-01 -1.3488188385963440e-01</leafValues></_>
    <_>
      <internalNodes>
        0 -1 596549 1.5756164793856442e-04</internalNodes>
      <leafValues>
        1.6584160923957825e-01 -3.2063001394271851e-01</leafValues></_>
    <_>
      <internalNodes>
        0 -1 690108 -2.7108932845294476e-03</internalNodes>
      <leafValues>
        3.6256757378578186e-01 -1.5281346440315247e-01</leafValues></_>
    <_>
      <internalNodes>
        0 -1 68200 1.0224371362710372e-04</internalNodes>
      <leafValues>
        -1.7616620659828186e-01 3.1282883882522583e-01</leafValues></_>
    <_>
      <internalNodes>
        0 -1 250494 -7.6826158910989761e-03</internalNodes>
      <leafValues>
        -7.1607910096645355e-02 8.8037526607513428e-01</leafValues></_>
    <_>
      <internalNodes>
        0 -1 457862 -1.3048429042100906e-02</internalNodes>
      <leafValues>
        1.5118919312953949e-01 -4.4609600305557251e-01</leafValues></_>
    <_>
      <internalNodes>
        0 -1 196029 9.9281652364879847e-04</internalNodes>
      <leafValues>
        2.3951886594295502e-01 -2.6414573192596436e-01</leafValues></_>
    <_>
      <internalNodes>
        0 -1 334929 -2.0275676797609776e-04</internalNodes>
      <leafValues>
        -3.9963823556900024e-01 1.3694970309734344e-01</leafValues></_>
    <_>
      <internalNodes>
        0 -1 102323 -3.2673687674105167e-03</internalNodes>
      <leafValues>
        6.7507499456405640e-01 -8.1687904894351959e-02</leafValues></_>
    <_>
      <internalNodes>
        0 -1 6646 1.2113364937249571e-04</internalNodes>
      <leafValues>
        2.7061924338340759e-01 -2.1094691753387451e-01</leafValues></_>
    <_>
      <internalNodes>
        0 -1 633675 -6.1006989562883973e-04</internalNodes>
      <leafValues>
        4.2806029319763184e-01 -1.5214438736438751e-01</leafValues></_>
    <_>
      <internalNodes>
        0 -1 685311 -1.3676122762262821e-04</internalNodes>
      <leafValues>
        2.5784566998481750e-01 -2.3102739453315735e-01</leafValues></_>
    <_>
      <internalNodes>
        0 -1 595579 -2.2218430414795876e-02</internalNodes>
      <leafValues>
        -1.6226314008235931e-01 4.4379067420959473e-01</leafValues></_>
    <_>
      <internalNodes>
        0 -1 268224 -6.7697905004024506e-02</internalNodes>
      <leafValues>
        6.1983644962310791e-01 -1.1662043631076813e-01</leafValues></_>
    <_>
      <internalNodes>
        0 -1 6839 1.1582323350012302e-03</internalNodes>
      <leafValues>
        1.0026656091213226e-01 -6.8824356794357300e-01</leafValues></_>
    <_>
      <internalNodes>
        0 -1 276708 2.3811478167772293e-03</internalNodes>
      <leafValues>
        -8.3803474903106689e-02 8.5481667518615723e-01</leafValues></_>
    <_>
      <internalNodes>
        0 -1 534751 -5.2021820010850206e-05</internalNodes>
      <leafValues>
        -1.7795966565608978e-01 3.5023298859596252e-01</leafValues></_>
    <_>
      <internalNodes>
        0 -1 163127 -3.5547089646570385e-04</internalNodes>
      <leafValues>
        4.5374003052711487e-01 -1.3143733143806458e-01</leafValues></_>
    <_>
      <internalNodes>
        0 -1 689024 -1.4283767668530345e-03</internalNodes>
      <leafValues>
        -4.5627924799919128e-01 1.4387768507003784e-01</leafValues></_>
    <_>
      <internalNodes>
        0 -1 643854 3.3363216789439321e-04</internalNodes>
      <leafValues>
        -2.8340649604797363e-01 2.2353190183639526e-01</leafValues></_>
    <_>
      <internalNodes>
        0 -1 405099 1.1634631082415581e-03</internalNodes>
      <leafValues>
        -1.2471968680620193e-01 5.4193907976150513e-01</leafValues></_>
    <_>
      <internalNodes>
        0 -1 14498 -6.4410181948915124e-05</internalNodes>
      <leafValues>
        3.8337033987045288e-01 -1.8285126984119415e-01</leafValues></_>
    <_>
      <internalNodes>
        0 -1 107178 -2.2083832882344723e-03</internalNodes>
      <leafValues>
        -6.6656702756881714e-01 1.0454605519771576e-01</leafValues></_>
    <_>
      <internalNodes>
        0 -1 8448 1.4562712749466300e-05</internalNodes>
      <leafValues>
        -4.4737038016319275e-01 1.5928374230861664e-01</leafValues></_>
    <_>
      <internalNodes>
        0 -1 320886 -2.1186038851737976e-02</internalNodes>
      <leafValues>
        8.0730336904525757e-01 -8.8404357433319092e-02</leafValues></_></weakClassifiers></stage59>
</opencv_storage>
