<?xml version="1.0"?>
<opencv_storage>
<stage33>
  <maxWeakCount>23</maxWeakCount>
  <stageThreshold>-5.4085385799407959e-01</stageThreshold>
  <weakClassifiers>
    <_>
      <internalNodes>
        0 -1 69623 2.2195315361022949e-01</internalNodes>
      <leafValues>
        3.8732394576072693e-01 -6.2500000000000000e-01</leafValues></_>
    <_>
      <internalNodes>
        0 -1 317631 5.6730238720774651e-03</internalNodes>
      <leafValues>
        -9.6247032284736633e-02 6.2569242715835571e-01</leafValues></_>
    <_>
      <internalNodes>
        0 -1 586971 -1.7874413169920444e-03</internalNodes>
      <leafValues>
        -1.1663677543401718e-01 6.0871374607086182e-01</leafValues></_>
    <_>
      <internalNodes>
        0 -1 595647 -2.1811526268720627e-02</internalNodes>
      <leafValues>
        8.9764527976512909e-02 -6.8529009819030762e-01</leafValues></_>
    <_>
      <internalNodes>
        0 -1 653674 9.4651598483324051e-03</internalNodes>
      <leafValues>
        -1.4674507081508636e-01 6.7043930292129517e-01</leafValues></_>
    <_>
      <internalNodes>
        0 -1 133909 2.1305325627326965e-01</internalNodes>
      <leafValues>
        1.1835379898548126e-01 -7.7482753992080688e-01</leafValues></_>
    <_>
      <internalNodes>
        0 -1 389488 -4.0343668311834335e-02</internalNodes>
      <leafValues>
        5.3033208847045898e-01 -1.2319879978895187e-01</leafValues></_>
    <_>
      <internalNodes>
        0 -1 56077 9.4787748821545392e-05</internalNodes>
      <leafValues>
        -2.0123165845870972e-01 2.9804188013076782e-01</leafValues></_>
    <_>
      <internalNodes>
        0 -1 649817 -5.7056702673435211e-02</internalNodes>
      <leafValues>
        6.9456225633621216e-01 -9.5391519367694855e-02</leafValues></_>
    <_>
      <internalNodes>
        0 -1 556379 -6.8414378911256790e-03</internalNodes>
      <leafValues>
        7.4618774652481079e-01 -6.1699919402599335e-02</leafValues></_>
    <_>
      <internalNodes>
        0 -1 485299 -1.0537949390709400e-02</internalNodes>
      <leafValues>
        6.9514846801757813e-01 -6.5324969589710236e-02</leafValues></_>
    <_>
      <internalNodes>
        0 -1 266881 5.1382076926529408e-03</internalNodes>
      <leafValues>
        9.6273764967918396e-02 -6.5790992975234985e-01</leafValues></_>
    <_>
      <internalNodes>
        0 -1 545981 -3.8357391953468323e-02</internalNodes>
      <leafValues>
        7.2027766704559326e-01 -9.2743553221225739e-02</leafValues></_>
    <_>
      <internalNodes>
        0 -1 582602 -1.1675961315631866e-01</internalNodes>
      <leafValues>
        -1.0105691105127335e-01 6.0264235734939575e-01</leafValues></_>
    <_>
      <internalNodes>
        0 -1 690791 -4.2006969451904297e-03</internalNodes>
      <leafValues>
        7.4498957395553589e-01 -8.5879512131214142e-02</leafValues></_>
    <_>
      <internalNodes>
        0 -1 84193 6.4357258379459381e-03</internalNodes>
      <leafValues>
        9.9696025252342224e-02 -6.9660532474517822e-01</leafValues></_>
    <_>
      <internalNodes>
        0 -1 520992 3.3260877244174480e-03</internalNodes>
      <leafValues>
        -1.8491284549236298e-01 3.5412657260894775e-01</leafValues></_>
    <_>
      <internalNodes>
        0 -1 700215 -2.5162957608699799e-03</internalNodes>
      <leafValues>
        -6.8341958522796631e-01 1.0716325789690018e-01</leafValues></_>
    <_>
      <internalNodes>
        0 -1 645029 7.9681328497827053e-04</internalNodes>
      <leafValues>
        -1.3484773039817810e-01 5.5370920896530151e-01</leafValues></_>
    <_>
      <internalNodes>
        0 -1 669893 -1.0038719046860933e-03</internalNodes>
      <leafValues>
        3.3335855603218079e-01 -2.2999319434165955e-01</leafValues></_>
    <_>
      <internalNodes>
        0 -1 525623 -4.5703318901360035e-03</internalNodes>
      <leafValues>
        3.5302391648292542e-01 -1.9114339351654053e-01</leafValues></_>
    <_>
      <internalNodes>
        0 -1 402796 -1.5526473522186279e-02</internalNodes>
      <leafValues>
        7.1833807229995728e-01 -7.2588786482810974e-02</leafValues></_>
    <_>
      <internalNodes>
        0 -1 544466 6.9601990981027484e-04</internalNodes>
      <leafValues>
        -1.3463419675827026e-01 3.9794182777404785e-01</leafValues></_></weakClassifiers></stage33>
</opencv_storage>
