<?xml version="1.0"?>
<opencv_storage>
<stage17>
  <maxWeakCount>19</maxWeakCount>
  <stageThreshold>-6.2024879455566406e-01</stageThreshold>
  <weakClassifiers>
    <_>
      <internalNodes>
        0 -1 506528 -2.0892333239316940e-02</internalNodes>
      <leafValues>
        1.1278195679187775e-01 7.7114427089691162e-01</leafValues></_>
    <_>
      <internalNodes>
        0 -1 13379 1.0349392145872116e-01</internalNodes>
      <leafValues>
        -3.1129565834999084e-01 2.6296395063400269e-01</leafValues></_>
    <_>
      <internalNodes>
        0 -1 547501 -2.2565439343452454e-02</internalNodes>
      <leafValues>
        5.1001083850860596e-01 -1.4093032479286194e-01</leafValues></_>
    <_>
      <internalNodes>
        0 -1 622466 -4.7662883996963501e-02</internalNodes>
      <leafValues>
        5.0303059816360474e-01 -1.6091783344745636e-01</leafValues></_>
    <_>
      <internalNodes>
        0 -1 225748 1.1210869252681732e-01</internalNodes>
      <leafValues>
        1.3567093014717102e-01 -4.6915242075920105e-01</leafValues></_>
    <_>
      <internalNodes>
        0 -1 586442 2.6621442520990968e-04</internalNodes>
      <leafValues>
        -1.6110095381736755e-01 4.0445020794868469e-01</leafValues></_>
    <_>
      <internalNodes>
        0 -1 571357 -6.5337325213477015e-04</internalNodes>
      <leafValues>
        3.2886832952499390e-01 -2.2726014256477356e-01</leafValues></_>
    <_>
      <internalNodes>
        0 -1 105978 -2.1832333877682686e-03</internalNodes>
      <leafValues>
        -3.9629265666007996e-01 1.9507658481597900e-01</leafValues></_>
    <_>
      <internalNodes>
        0 -1 584549 -1.2773240086971782e-05</internalNodes>
      <leafValues>
        2.8618121147155762e-01 -2.4698621034622192e-01</leafValues></_>
    <_>
      <internalNodes>
        0 -1 618893 -1.5778997913002968e-02</internalNodes>
      <leafValues>
        7.3606085777282715e-01 -9.5375247299671173e-02</leafValues></_>
    <_>
      <internalNodes>
        0 -1 520206 -2.6335078291594982e-03</internalNodes>
      <leafValues>
        -5.1132458448410034e-01 1.7161752283573151e-01</leafValues></_>
    <_>
      <internalNodes>
        0 -1 470121 -7.1823522448539734e-03</internalNodes>
      <leafValues>
        -4.8172843456268311e-01 1.4808335900306702e-01</leafValues></_>
    <_>
      <internalNodes>
        0 -1 401055 2.0112390629947186e-03</internalNodes>
      <leafValues>
        -8.3437889814376831e-02 9.0126776695251465e-01</leafValues></_>
    <_>
      <internalNodes>
        0 -1 635945 5.5383345170412213e-05</internalNodes>
      <leafValues>
        -1.9217421114444733e-01 3.2768502831459045e-01</leafValues></_>
    <_>
      <internalNodes>
        0 -1 560018 3.8085177540779114e-02</internalNodes>
      <leafValues>
        -2.4518163502216339e-01 3.2452610135078430e-01</leafValues></_>
    <_>
      <internalNodes>
        0 -1 264290 1.0045422241091728e-03</internalNodes>
      <leafValues>
        -2.0930032432079315e-01 3.7142133712768555e-01</leafValues></_>
    <_>
      <internalNodes>
        0 -1 696266 4.7178990207612514e-03</internalNodes>
      <leafValues>
        1.1914865672588348e-01 -5.9378230571746826e-01</leafValues></_>
    <_>
      <internalNodes>
        0 -1 555782 -2.8294578194618225e-02</internalNodes>
      <leafValues>
        -5.7715463638305664e-01 1.0924263298511505e-01</leafValues></_>
    <_>
      <internalNodes>
        0 -1 222174 2.0104632712900639e-03</internalNodes>
      <leafValues>
        -1.3110683858394623e-01 6.4856755733489990e-01</leafValues></_></weakClassifiers></stage17>
</opencv_storage>
