<?xml version="1.0"?>
<opencv_storage>
<stage57>
  <maxWeakCount>17</maxWeakCount>
  <stageThreshold>-5.2753776311874390e-01</stageThreshold>
  <weakClassifiers>
    <_>
      <internalNodes>
        0 -1 351167 -6.0185782611370087e-02</internalNodes>
      <leafValues>
        3.9784947037696838e-01 -5.2380955219268799e-01</leafValues></_>
    <_>
      <internalNodes>
        0 -1 66891 -1.2438900303095579e-03</internalNodes>
      <leafValues>
        -3.5776084661483765e-01 2.7062380313873291e-01</leafValues></_>
    <_>
      <internalNodes>
        0 -1 692062 -1.2262085452675819e-02</internalNodes>
      <leafValues>
        8.5511773824691772e-01 -1.2304013967514038e-01</leafValues></_>
    <_>
      <internalNodes>
        0 -1 688380 -3.4992245491594076e-04</internalNodes>
      <leafValues>
        -3.3175387978553772e-01 2.0539043843746185e-01</leafValues></_>
    <_>
      <internalNodes>
        0 -1 520375 -1.6033153224270791e-04</internalNodes>
      <leafValues>
        -3.7346926331520081e-01 1.9145844876766205e-01</leafValues></_>
    <_>
      <internalNodes>
        0 -1 638537 5.3128981962800026e-03</internalNodes>
      <leafValues>
        8.4844797849655151e-02 -9.0316891670227051e-01</leafValues></_>
    <_>
      <internalNodes>
        0 -1 689318 3.3069512574002147e-04</internalNodes>
      <leafValues>
        -1.3940140604972839e-01 6.0897558927536011e-01</leafValues></_>
    <_>
      <internalNodes>
        0 -1 663704 1.6524698585271835e-03</internalNodes>
      <leafValues>
        1.1622876673936844e-01 -6.3202834129333496e-01</leafValues></_>
    <_>
      <internalNodes>
        0 -1 355255 -3.0456890817731619e-04</internalNodes>
      <leafValues>
        4.7739890217781067e-01 -1.7114545404911041e-01</leafValues></_>
    <_>
      <internalNodes>
        0 -1 483787 -2.1848769392818213e-03</internalNodes>
      <leafValues>
        4.4283181428909302e-01 -1.5741385519504547e-01</leafValues></_>
    <_>
      <internalNodes>
        0 -1 39227 1.5360783785581589e-02</internalNodes>
      <leafValues>
        -1.5887622535228729e-01 4.4556716084480286e-01</leafValues></_>
    <_>
      <internalNodes>
        0 -1 91880 6.4021572470664978e-03</internalNodes>
      <leafValues>
        -1.4011991024017334e-01 5.0878822803497314e-01</leafValues></_>
    <_>
      <internalNodes>
        0 -1 478681 8.0751825589686632e-04</internalNodes>
      <leafValues>
        -3.0905798077583313e-01 2.5612020492553711e-01</leafValues></_>
    <_>
      <internalNodes>
        0 -1 256172 2.5105513632297516e-03</internalNodes>
      <leafValues>
        -1.4847022294998169e-01 6.2582033872604370e-01</leafValues></_>
    <_>
      <internalNodes>
        0 -1 653699 1.0717940749600530e-03</internalNodes>
      <leafValues>
        -1.2573184072971344e-01 5.6769835948944092e-01</leafValues></_>
    <_>
      <internalNodes>
        0 -1 673970 -1.3820204883813858e-02</internalNodes>
      <leafValues>
        8.5098946094512939e-01 -7.9383358359336853e-02</leafValues></_>
    <_>
      <internalNodes>
        0 -1 64919 1.4211473986506462e-02</internalNodes>
      <leafValues>
        1.4994527399539948e-01 -6.2086135149002075e-01</leafValues></_></weakClassifiers></stage57>
</opencv_storage>
