<?xml version="1.0"?>
<opencv_storage>
<stage62>
  <maxWeakCount>15</maxWeakCount>
  <stageThreshold>-3.9409512281417847e-01</stageThreshold>
  <weakClassifiers>
    <_>
      <internalNodes>
        0 -1 462165 -5.7852230966091156e-03</internalNodes>
      <leafValues>
        4.1261261701583862e-01 -6.4444446563720703e-01</leafValues></_>
    <_>
      <internalNodes>
        0 -1 163127 -4.6604691306129098e-04</internalNodes>
      <leafValues>
        8.8622039556503296e-01 -9.5503389835357666e-02</leafValues></_>
    <_>
      <internalNodes>
        0 -1 366665 1.3270485214889050e-03</internalNodes>
      <leafValues>
        -1.7762938141822815e-01 6.4206331968307495e-01</leafValues></_>
    <_>
      <internalNodes>
        0 -1 274809 -1.8450422212481499e-03</internalNodes>
      <leafValues>
        8.4560710191726685e-01 -1.1104250699281693e-01</leafValues></_>
    <_>
      <internalNodes>
        0 -1 481297 3.5795127041637897e-03</internalNodes>
      <leafValues>
        -1.6934734582901001e-01 5.7627290487289429e-01</leafValues></_>
    <_>
      <internalNodes>
        0 -1 217227 -1.0223105549812317e-02</internalNodes>
      <leafValues>
        4.0731427073478699e-01 -3.4187126159667969e-01</leafValues></_>
    <_>
      <internalNodes>
        0 -1 675779 1.7413732130080462e-03</internalNodes>
      <leafValues>
        -9.5355093479156494e-02 9.3017953634262085e-01</leafValues></_>
    <_>
      <internalNodes>
        0 -1 164124 2.2709819313604385e-04</internalNodes>
      <leafValues>
        4.4503828883171082e-01 -2.5221163034439087e-01</leafValues></_>
    <_>
      <internalNodes>
        0 -1 597050 4.7498833737336099e-05</internalNodes>
      <leafValues>
        3.9275225996971130e-01 -3.1091016530990601e-01</leafValues></_>
    <_>
      <internalNodes>
        0 -1 222913 -9.2742309789173305e-05</internalNodes>
      <leafValues>
        6.8835759162902832e-01 -1.6966685652732849e-01</leafValues></_>
    <_>
      <internalNodes>
        0 -1 89208 -1.1233546538278461e-03</internalNodes>
      <leafValues>
        -4.1621690988540649e-01 3.4552788734436035e-01</leafValues></_>
    <_>
      <internalNodes>
        0 -1 130412 7.3565199272707105e-05</internalNodes>
      <leafValues>
        -2.4346701800823212e-01 4.9529278278350830e-01</leafValues></_>
    <_>
      <internalNodes>
        0 -1 352284 1.7347432731185108e-04</internalNodes>
      <leafValues>
        -2.3759607970714569e-01 5.7408481836318970e-01</leafValues></_>
    <_>
      <internalNodes>
        0 -1 696167 5.7874662161339074e-05</internalNodes>
      <leafValues>
        -2.2560569643974304e-01 5.5678594112396240e-01</leafValues></_>
    <_>
      <internalNodes>
        0 -1 693636 -3.4743850119411945e-03</internalNodes>
      <leafValues>
        -1.7868575453758240e-01 6.9551807641983032e-01</leafValues></_></weakClassifiers></stage62>
</opencv_storage>
