<?xml version="1.0"?>
<opencv_storage>
<stage34>
  <maxWeakCount>22</maxWeakCount>
  <stageThreshold>-3.6695030331611633e-01</stageThreshold>
  <weakClassifiers>
    <_>
      <internalNodes>
        0 -1 447150 5.1649981178343296e-03</internalNodes>
      <leafValues>
        3.9469027519226074e-01 -6.5714287757873535e-01</leafValues></_>
    <_>
      <internalNodes>
        0 -1 559038 -2.5789453648030758e-03</internalNodes>
      <leafValues>
        -2.3736168444156647e-01 2.4410179257392883e-01</leafValues></_>
    <_>
      <internalNodes>
        0 -1 683704 2.8131536964792758e-05</internalNodes>
      <leafValues>
        -2.3035193979740143e-01 2.6404961943626404e-01</leafValues></_>
    <_>
      <internalNodes>
        0 -1 359930 1.3236813247203827e-02</internalNodes>
      <leafValues>
        -1.0763730108737946e-01 5.5711388587951660e-01</leafValues></_>
    <_>
      <internalNodes>
        0 -1 448529 3.0477065593004227e-02</internalNodes>
      <leafValues>
        -5.8483558893203735e-01 8.6421765387058258e-02</leafValues></_>
    <_>
      <internalNodes>
        0 -1 669637 3.8858568295836449e-03</internalNodes>
      <leafValues>
        -1.0113475471735001e-01 6.3010674715042114e-01</leafValues></_>
    <_>
      <internalNodes>
        0 -1 403365 -1.1079014075221494e-04</internalNodes>
      <leafValues>
        3.7822830677032471e-01 -1.3254210352897644e-01</leafValues></_>
    <_>
      <internalNodes>
        0 -1 13003 -4.2964197695255280e-02</internalNodes>
      <leafValues>
        -1.4672505855560303e-01 4.7150754928588867e-01</leafValues></_>
    <_>
      <internalNodes>
        0 -1 268347 -1.3591322116553783e-02</internalNodes>
      <leafValues>
        5.5745917558670044e-01 -1.2371788918972015e-01</leafValues></_>
    <_>
      <internalNodes>
        0 -1 216824 -6.4916885457932949e-04</internalNodes>
      <leafValues>
        2.9878103733062744e-01 -2.6749753952026367e-01</leafValues></_>
    <_>
      <internalNodes>
        0 -1 58716 7.3601149779278785e-05</internalNodes>
      <leafValues>
        -2.4437852203845978e-01 3.1168854236602783e-01</leafValues></_>
    <_>
      <internalNodes>
        0 -1 444973 -5.0119222141802311e-03</internalNodes>
      <leafValues>
        3.7100434303283691e-01 -1.9349211454391479e-01</leafValues></_>
    <_>
      <internalNodes>
        0 -1 419302 -1.2913131713867188e-01</internalNodes>
      <leafValues>
        -5.4099285602569580e-01 1.4148050546646118e-01</leafValues></_>
    <_>
      <internalNodes>
        0 -1 173990 1.8685132265090942e-02</internalNodes>
      <leafValues>
        -1.9871726632118225e-01 3.0907478928565979e-01</leafValues></_>
    <_>
      <internalNodes>
        0 -1 684989 -5.8547775552142411e-06</internalNodes>
      <leafValues>
        3.1457298994064331e-01 -2.0661513507366180e-01</leafValues></_>
    <_>
      <internalNodes>
        0 -1 455534 1.6695741564035416e-02</internalNodes>
      <leafValues>
        1.3484562933444977e-01 -5.3472197055816650e-01</leafValues></_>
    <_>
      <internalNodes>
        0 -1 42592 1.1937047820538282e-03</internalNodes>
      <leafValues>
        -4.7202605009078979e-01 1.3132846355438232e-01</leafValues></_>
    <_>
      <internalNodes>
        0 -1 193454 -6.8333745002746582e-03</internalNodes>
      <leafValues>
        8.6773973703384399e-01 -7.6427370309829712e-02</leafValues></_>
    <_>
      <internalNodes>
        0 -1 210358 6.7125335335731506e-03</internalNodes>
      <leafValues>
        -5.0855286419391632e-02 8.6916553974151611e-01</leafValues></_>
    <_>
      <internalNodes>
        0 -1 581118 2.7635539881885052e-03</internalNodes>
      <leafValues>
        -4.7610443085432053e-02 9.2299908399581909e-01</leafValues></_>
    <_>
      <internalNodes>
        0 -1 320188 7.3615116998553276e-03</internalNodes>
      <leafValues>
        -1.3550509512424469e-01 4.0702950954437256e-01</leafValues></_>
    <_>
      <internalNodes>
        0 -1 105328 3.2497796928510070e-04</internalNodes>
      <leafValues>
        -1.5981912612915039e-01 3.9517211914062500e-01</leafValues></_></weakClassifiers></stage34>
</opencv_storage>
