<?xml version="1.0"?>
<opencv_storage>
<stage14>
  <maxWeakCount>15</maxWeakCount>
  <stageThreshold>-8.0197805166244507e-01</stageThreshold>
  <weakClassifiers>
    <_>
      <internalNodes>
        0 -1 357539 1.0731469094753265e-01</internalNodes>
      <leafValues>
        -3.7974681705236435e-02 7.4647885560989380e-01</leafValues></_>
    <_>
      <internalNodes>
        0 -1 399093 -8.7486311793327332e-02</internalNodes>
      <leafValues>
        7.7081471681594849e-01 -1.2893413007259369e-01</leafValues></_>
    <_>
      <internalNodes>
        0 -1 449506 1.4963692054152489e-02</internalNodes>
      <leafValues>
        2.1332862973213196e-01 -6.3370931148529053e-01</leafValues></_>
    <_>
      <internalNodes>
        0 -1 448519 -6.1101457104086876e-03</internalNodes>
      <leafValues>
        -5.9902894496917725e-01 1.7169792950153351e-01</leafValues></_>
    <_>
      <internalNodes>
        0 -1 236459 6.0422504320740700e-03</internalNodes>
      <leafValues>
        -3.4179463982582092e-01 2.8152605891227722e-01</leafValues></_>
    <_>
      <internalNodes>
        0 -1 678525 2.5558937340974808e-03</internalNodes>
      <leafValues>
        1.8549105525016785e-01 -6.1305338144302368e-01</leafValues></_>
    <_>
      <internalNodes>
        0 -1 56102 7.6070413924753666e-03</internalNodes>
      <leafValues>
        7.2222597897052765e-02 -8.7227517366409302e-01</leafValues></_>
    <_>
      <internalNodes>
        0 -1 421915 2.1146731451153755e-02</internalNodes>
      <leafValues>
        -1.8830354511737823e-01 5.5674910545349121e-01</leafValues></_>
    <_>
      <internalNodes>
        0 -1 69500 -3.6928483750671148e-03</internalNodes>
      <leafValues>
        -4.4857460260391235e-01 2.7303588390350342e-01</leafValues></_>
    <_>
      <internalNodes>
        0 -1 308316 6.8408539518713951e-03</internalNodes>
      <leafValues>
        1.6163358092308044e-01 -7.1447116136550903e-01</leafValues></_>
    <_>
      <internalNodes>
        0 -1 8698 -1.3742967275902629e-03</internalNodes>
      <leafValues>
        -5.4010856151580811e-01 1.7782340943813324e-01</leafValues></_>
    <_>
      <internalNodes>
        0 -1 524300 4.8989597707986832e-03</internalNodes>
      <leafValues>
        1.2704612314701080e-01 -7.5212848186492920e-01</leafValues></_>
    <_>
      <internalNodes>
        0 -1 669084 7.1217905497178435e-04</internalNodes>
      <leafValues>
        -2.1214830875396729e-01 6.3896596431732178e-01</leafValues></_>
    <_>
      <internalNodes>
        0 -1 223321 -1.9666608422994614e-03</internalNodes>
      <leafValues>
        -5.4375481605529785e-01 2.2043937444686890e-01</leafValues></_>
    <_>
      <internalNodes>
        0 -1 624051 9.1976802796125412e-03</internalNodes>
      <leafValues>
        1.4469714462757111e-01 -7.0877367258071899e-01</leafValues></_></weakClassifiers></stage14>
</opencv_storage>
