<?xml version="1.0"?>
<opencv_storage>
<stage39>
  <maxWeakCount>23</maxWeakCount>
  <stageThreshold>-3.2626157999038696e-01</stageThreshold>
  <weakClassifiers>
    <_>
      <internalNodes>
        0 -1 535016 -4.5753410086035728e-03</internalNodes>
      <leafValues>
        4.7651007771492004e-01 -8.4967322647571564e-02</leafValues></_>
    <_>
      <internalNodes>
        0 -1 243476 -2.7113634860143065e-04</internalNodes>
      <leafValues>
        4.9841254949569702e-01 -1.1652708053588867e-01</leafValues></_>
    <_>
      <internalNodes>
        0 -1 614230 2.6387698017060757e-03</internalNodes>
      <leafValues>
        1.4094942808151245e-01 -4.5843178033828735e-01</leafValues></_>
    <_>
      <internalNodes>
        0 -1 204949 -8.5440173745155334e-02</internalNodes>
      <leafValues>
        5.1413750648498535e-01 -1.2401729822158813e-01</leafValues></_>
    <_>
      <internalNodes>
        0 -1 698595 4.2171821405645460e-05</internalNodes>
      <leafValues>
        -1.8840749561786652e-01 3.4996378421783447e-01</leafValues></_>
    <_>
      <internalNodes>
        0 -1 197567 -1.6167730791494250e-04</internalNodes>
      <leafValues>
        -4.3642476201057434e-01 1.4360862970352173e-01</leafValues></_>
    <_>
      <internalNodes>
        0 -1 485672 -4.5020394027233124e-03</internalNodes>
      <leafValues>
        7.4963617324829102e-01 -7.9451367259025574e-02</leafValues></_>
    <_>
      <internalNodes>
        0 -1 698126 4.5549632050096989e-03</internalNodes>
      <leafValues>
        6.6552385687828064e-02 -9.0805339813232422e-01</leafValues></_>
    <_>
      <internalNodes>
        0 -1 176257 -1.6242940910160542e-04</internalNodes>
      <leafValues>
        4.5192113518714905e-01 -1.4044940471649170e-01</leafValues></_>
    <_>
      <internalNodes>
        0 -1 305861 -7.4475409928709269e-04</internalNodes>
      <leafValues>
        -4.9190586805343628e-01 1.3407643139362335e-01</leafValues></_>
    <_>
      <internalNodes>
        0 -1 699521 2.3511105682700872e-03</internalNodes>
      <leafValues>
        -1.8232405185699463e-01 3.8460409641265869e-01</leafValues></_>
    <_>
      <internalNodes>
        0 -1 646661 -1.5138781163841486e-03</internalNodes>
      <leafValues>
        -3.6057221889495850e-01 1.8354411423206329e-01</leafValues></_>
    <_>
      <internalNodes>
        0 -1 675052 -1.6581363976001740e-02</internalNodes>
      <leafValues>
        5.1295113563537598e-01 -1.3786108791828156e-01</leafValues></_>
    <_>
      <internalNodes>
        0 -1 654846 1.0395606514066458e-03</internalNodes>
      <leafValues>
        -1.3056932389736176e-01 4.4754192233085632e-01</leafValues></_>
    <_>
      <internalNodes>
        0 -1 305414 6.4020040445029736e-03</internalNodes>
      <leafValues>
        1.5650460124015808e-01 -4.1726288199424744e-01</leafValues></_>
    <_>
      <internalNodes>
        0 -1 462168 2.4903616867959499e-03</internalNodes>
      <leafValues>
        1.1935538798570633e-01 -5.3759980201721191e-01</leafValues></_>
    <_>
      <internalNodes>
        0 -1 651000 -1.5236895997077227e-03</internalNodes>
      <leafValues>
        5.2937382459640503e-01 -1.3431239128112793e-01</leafValues></_>
    <_>
      <internalNodes>
        0 -1 251214 1.2545038480311632e-03</internalNodes>
      <leafValues>
        -1.0975221544504166e-01 5.2533870935440063e-01</leafValues></_>
    <_>
      <internalNodes>
        0 -1 587168 -1.4122777793090791e-04</internalNodes>
      <leafValues>
        -2.8535649180412292e-01 2.2977188229560852e-01</leafValues></_>
    <_>
      <internalNodes>
        0 -1 67741 -1.5684179961681366e-02</internalNodes>
      <leafValues>
        -5.5195862054824829e-01 1.2649045884609222e-01</leafValues></_>
    <_>
      <internalNodes>
        0 -1 163894 3.6250050179660320e-03</internalNodes>
      <leafValues>
        1.3004906475543976e-01 -5.2185410261154175e-01</leafValues></_>
    <_>
      <internalNodes>
        0 -1 692691 5.2483519539237022e-04</internalNodes>
      <leafValues>
        -1.8155430257320404e-01 4.0383502840995789e-01</leafValues></_>
    <_>
      <internalNodes>
        0 -1 246207 -3.3530470682308078e-04</internalNodes>
      <leafValues>
        6.0198128223419189e-01 -1.0906679928302765e-01</leafValues></_></weakClassifiers></stage39>
</opencv_storage>
