<?xml version="1.0"?>
<opencv_storage>
<stage47>
  <maxWeakCount>27</maxWeakCount>
  <stageThreshold>-5.1950651407241821e-01</stageThreshold>
  <weakClassifiers>
    <_>
      <internalNodes>
        0 -1 455454 -2.8881436586380005e-01</internalNodes>
      <leafValues>
        -1. 3.7457045912742615e-01</leafValues></_>
    <_>
      <internalNodes>
        0 -1 619867 -5.0800130702555180e-04</internalNodes>
      <leafValues>
        2.7096399664878845e-01 -2.0694692432880402e-01</leafValues></_>
    <_>
      <internalNodes>
        0 -1 437263 -1.5566846728324890e-01</internalNodes>
      <leafValues>
        -6.1110764741897583e-02 8.6657130718231201e-01</leafValues></_>
    <_>
      <internalNodes>
        0 -1 192982 3.2470456790179014e-04</internalNodes>
      <leafValues>
        -1.8013979494571686e-01 3.3681017160415649e-01</leafValues></_>
    <_>
      <internalNodes>
        0 -1 593570 -8.1064307596534491e-04</internalNodes>
      <leafValues>
        -3.9615184068679810e-01 1.4631561934947968e-01</leafValues></_>
    <_>
      <internalNodes>
        0 -1 163113 -4.3342628487152979e-05</internalNodes>
      <leafValues>
        2.8843885660171509e-01 -2.0628961920738220e-01</leafValues></_>
    <_>
      <internalNodes>
        0 -1 32917 -2.3847270756959915e-02</internalNodes>
      <leafValues>
        -5.7065999507904053e-01 8.4719762206077576e-02</leafValues></_>
    <_>
      <internalNodes>
        0 -1 698482 -5.3243220463627949e-06</internalNodes>
      <leafValues>
        2.5281289219856262e-01 -2.4277205765247345e-01</leafValues></_>
    <_>
      <internalNodes>
        0 -1 331662 3.2925088889896870e-03</internalNodes>
      <leafValues>
        1.0653178393840790e-01 -5.9650212526321411e-01</leafValues></_>
    <_>
      <internalNodes>
        0 -1 401526 -2.4327100254595280e-03</internalNodes>
      <leafValues>
        3.3197227120399475e-01 -1.9790129363536835e-01</leafValues></_>
    <_>
      <internalNodes>
        0 -1 371748 -3.7580655771307647e-04</internalNodes>
      <leafValues>
        4.6202361583709717e-01 -1.3350282609462738e-01</leafValues></_>
    <_>
      <internalNodes>
        0 -1 269300 -1.6853101551532745e-02</internalNodes>
      <leafValues>
        4.3726289272308350e-01 -1.4558653533458710e-01</leafValues></_>
    <_>
      <internalNodes>
        0 -1 630363 7.6651130802929401e-04</internalNodes>
      <leafValues>
        -1.5281109511852264e-01 3.8883835077285767e-01</leafValues></_>
    <_>
      <internalNodes>
        0 -1 308397 -1.3811806216835976e-02</internalNodes>
      <leafValues>
        3.6501505970954895e-01 -1.8784163892269135e-01</leafValues></_>
    <_>
      <internalNodes>
        0 -1 609733 -9.9026912357658148e-04</internalNodes>
      <leafValues>
        3.7979713082313538e-01 -1.6470806300640106e-01</leafValues></_>
    <_>
      <internalNodes>
        0 -1 648540 -2.5642940774559975e-02</internalNodes>
      <leafValues>
        4.4922146201133728e-01 -1.5921021997928619e-01</leafValues></_>
    <_>
      <internalNodes>
        0 -1 493406 -1.8064085394144058e-02</internalNodes>
      <leafValues>
        -6.2825387716293335e-01 1.3647633790969849e-01</leafValues></_>
    <_>
      <internalNodes>
        0 -1 535892 2.7622978086583316e-04</internalNodes>
      <leafValues>
        1.8207584321498871e-01 -3.7995404005050659e-01</leafValues></_>
    <_>
      <internalNodes>
        0 -1 696251 3.2614996598567814e-05</internalNodes>
      <leafValues>
        -2.9143106937408447e-01 2.2974011301994324e-01</leafValues></_>
    <_>
      <internalNodes>
        0 -1 572521 -2.1700416691601276e-03</internalNodes>
      <leafValues>
        7.6482933759689331e-01 -8.0633141100406647e-02</leafValues></_>
    <_>
      <internalNodes>
        0 -1 4634 -4.3507723603397608e-04</internalNodes>
      <leafValues>
        -5.1153445243835449e-01 1.4579162001609802e-01</leafValues></_>
    <_>
      <internalNodes>
        0 -1 221978 4.9644643440842628e-03</internalNodes>
      <leafValues>
        -8.0670721828937531e-02 8.8679331541061401e-01</leafValues></_>
    <_>
      <internalNodes>
        0 -1 698059 -4.6389101771637797e-04</internalNodes>
      <leafValues>
        3.6826246976852417e-01 -1.5910935401916504e-01</leafValues></_>
    <_>
      <internalNodes>
        0 -1 97311 1.0578087531030178e-03</internalNodes>
      <leafValues>
        -1.3138447701931000e-01 5.3571963310241699e-01</leafValues></_>
    <_>
      <internalNodes>
        0 -1 512278 -2.1830927580595016e-02</internalNodes>
      <leafValues>
        5.3961867094039917e-01 -1.2753255665302277e-01</leafValues></_>
    <_>
      <internalNodes>
        0 -1 682313 -4.8939362168312073e-03</internalNodes>
      <leafValues>
        5.3352332115173340e-01 -1.2863421440124512e-01</leafValues></_>
    <_>
      <internalNodes>
        0 -1 400537 5.9354463592171669e-03</internalNodes>
      <leafValues>
        -8.8998839259147644e-02 6.9403922557830811e-01</leafValues></_></weakClassifiers></stage47>
</opencv_storage>
