<?xml version="1.0"?>
<opencv_storage>
<stage56>
  <maxWeakCount>18</maxWeakCount>
  <stageThreshold>-3.4100633859634399e-01</stageThreshold>
  <weakClassifiers>
    <_>
      <internalNodes>
        0 -1 374920 -3.5435147583484650e-02</internalNodes>
      <leafValues>
        3.7931033968925476e-01 -1.</leafValues></_>
    <_>
      <internalNodes>
        0 -1 664290 1.1118107941001654e-03</internalNodes>
      <leafValues>
        1.4647375047206879e-01 -5.6804007291793823e-01</leafValues></_>
    <_>
      <internalNodes>
        0 -1 491309 -1.0046988725662231e-02</internalNodes>
      <leafValues>
        5.7936352491378784e-01 -1.3190628588199615e-01</leafValues></_>
    <_>
      <internalNodes>
        0 -1 323110 1.9973046146333218e-03</internalNodes>
      <leafValues>
        -1.9122406840324402e-01 4.0524986386299133e-01</leafValues></_>
    <_>
      <internalNodes>
        0 -1 487461 -2.1692917216569185e-03</internalNodes>
      <leafValues>
        -4.5517352223396301e-01 1.4053052663803101e-01</leafValues></_>
    <_>
      <internalNodes>
        0 -1 305122 4.7646748134866357e-04</internalNodes>
      <leafValues>
        -1.5525984764099121e-01 4.7471573948860168e-01</leafValues></_>
    <_>
      <internalNodes>
        0 -1 634470 3.5299859009683132e-03</internalNodes>
      <leafValues>
        -1.1681484431028366e-01 6.8545174598693848e-01</leafValues></_>
    <_>
      <internalNodes>
        0 -1 585181 -8.4759732708334923e-03</internalNodes>
      <leafValues>
        -5.7643562555313110e-01 1.3943602144718170e-01</leafValues></_>
    <_>
      <internalNodes>
        0 -1 592465 -7.1982420980930328e-02</internalNodes>
      <leafValues>
        -8.3072662353515625e-01 7.7162832021713257e-02</leafValues></_>
    <_>
      <internalNodes>
        0 -1 525035 -8.9245527982711792e-02</internalNodes>
      <leafValues>
        2.8546789288520813e-01 -2.4426671862602234e-01</leafValues></_>
    <_>
      <internalNodes>
        0 -1 556940 1.2166185770183802e-03</internalNodes>
      <leafValues>
        -1.2291332334280014e-01 5.7301735877990723e-01</leafValues></_>
    <_>
      <internalNodes>
        0 -1 579251 -6.8784713745117188e-02</internalNodes>
      <leafValues>
        -7.8061825037002563e-01 8.7627604603767395e-02</leafValues></_>
    <_>
      <internalNodes>
        0 -1 472250 1.9387797219678760e-03</internalNodes>
      <leafValues>
        -1.4541761577129364e-01 5.3085601329803467e-01</leafValues></_>
    <_>
      <internalNodes>
        0 -1 263747 -5.6933034211397171e-02</internalNodes>
      <leafValues>
        6.3411045074462891e-01 -9.5018319785594940e-02</leafValues></_>
    <_>
      <internalNodes>
        0 -1 255914 7.8064702451229095e-02</internalNodes>
      <leafValues>
        -2.0439393818378448e-01 4.3994104862213135e-01</leafValues></_>
    <_>
      <internalNodes>
        0 -1 579621 -1.7848919378593564e-03</internalNodes>
      <leafValues>
        -5.3718352317810059e-01 1.6595442593097687e-01</leafValues></_>
    <_>
      <internalNodes>
        0 -1 509823 -3.0646618455648422e-02</internalNodes>
      <leafValues>
        6.7814815044403076e-01 -1.3575540482997894e-01</leafValues></_>
    <_>
      <internalNodes>
        0 -1 696174 5.4210417147260159e-05</internalNodes>
      <leafValues>
        2.4332572519779205e-01 -3.5169702768325806e-01</leafValues></_></weakClassifiers></stage56>
</opencv_storage>
