<?xml version="1.0"?>
<opencv_storage>
<stage13>
  <maxWeakCount>13</maxWeakCount>
  <stageThreshold>-7.6683104038238525e-01</stageThreshold>
  <weakClassifiers>
    <_>
      <internalNodes>
        0 -1 448352 5.1427830010652542e-02</internalNodes>
      <leafValues>
        -2.5123152136802673e-01 6.3224178552627563e-01</leafValues></_>
    <_>
      <internalNodes>
        0 -1 420977 -1.1739881336688995e-01</internalNodes>
      <leafValues>
        6.4133042097091675e-01 -1.5848611295223236e-01</leafValues></_>
    <_>
      <internalNodes>
        0 -1 415695 -4.8925533890724182e-02</internalNodes>
      <leafValues>
        6.2218552827835083e-01 -1.8985280394554138e-01</leafValues></_>
    <_>
      <internalNodes>
        0 -1 150331 -2.0123060792684555e-02</internalNodes>
      <leafValues>
        4.9736714363098145e-01 -2.2674445807933807e-01</leafValues></_>
    <_>
      <internalNodes>
        0 -1 183626 2.2643107920885086e-02</internalNodes>
      <leafValues>
        -2.1043786406517029e-01 5.8634245395660400e-01</leafValues></_>
    <_>
      <internalNodes>
        0 -1 461544 -7.7967173419892788e-03</internalNodes>
      <leafValues>
        4.9406373500823975e-01 -2.5816690921783447e-01</leafValues></_>
    <_>
      <internalNodes>
        0 -1 544134 -5.0247929990291595e-02</internalNodes>
      <leafValues>
        2.9429805278778076e-01 -3.7873637676239014e-01</leafValues></_>
    <_>
      <internalNodes>
        0 -1 217041 3.9399368688464165e-03</internalNodes>
      <leafValues>
        -2.2903588414192200e-01 5.2251082658767700e-01</leafValues></_>
    <_>
      <internalNodes>
        0 -1 160860 -4.5964729040861130e-02</internalNodes>
      <leafValues>
        7.6462382078170776e-01 -1.4086581766605377e-01</leafValues></_>
    <_>
      <internalNodes>
        0 -1 270522 1.0238460265100002e-02</internalNodes>
      <leafValues>
        -1.3675290346145630e-01 6.3071697950363159e-01</leafValues></_>
    <_>
      <internalNodes>
        0 -1 501078 1.1542337015271187e-02</internalNodes>
      <leafValues>
        -1.3408046960830688e-01 7.2655129432678223e-01</leafValues></_>
    <_>
      <internalNodes>
        0 -1 569004 8.6595658212900162e-03</internalNodes>
      <leafValues>
        -2.6901054382324219e-01 3.4268268942832947e-01</leafValues></_>
    <_>
      <internalNodes>
        0 -1 201599 2.7465861290693283e-02</internalNodes>
      <leafValues>
        -4.0730106830596924e-01 3.1937542557716370e-01</leafValues></_></weakClassifiers></stage13>
</opencv_storage>
