<?xml version="1.0"?>
<opencv_storage>
<stage37>
  <maxWeakCount>24</maxWeakCount>
  <stageThreshold>-3.9384305477142334e-01</stageThreshold>
  <weakClassifiers>
    <_>
      <internalNodes>
        0 -1 2786 2.3707658052444458e-02</internalNodes>
      <leafValues>
        3.9426523447036743e-01 -4.7619047760963440e-01</leafValues></_>
    <_>
      <internalNodes>
        0 -1 383445 1.1150234058732167e-04</internalNodes>
      <leafValues>
        3.3865702152252197e-01 -1.9112204015254974e-01</leafValues></_>
    <_>
      <internalNodes>
        0 -1 680003 2.1356787532567978e-02</internalNodes>
      <leafValues>
        -9.6248760819435120e-02 9.2094707489013672e-01</leafValues></_>
    <_>
      <internalNodes>
        0 -1 280112 -9.9898260086774826e-03</internalNodes>
      <leafValues>
        7.0279330015182495e-01 -7.8275665640830994e-02</leafValues></_>
    <_>
      <internalNodes>
        0 -1 634685 -2.0273160189390182e-02</internalNodes>
      <leafValues>
        7.3880535364151001e-01 -9.7196690738201141e-02</leafValues></_>
    <_>
      <internalNodes>
        0 -1 635821 -3.5226877662353218e-04</internalNodes>
      <leafValues>
        -2.6703861355781555e-01 2.5866436958312988e-01</leafValues></_>
    <_>
      <internalNodes>
        0 -1 175786 -1.1684608180075884e-03</internalNodes>
      <leafValues>
        -4.2716687917709351e-01 1.4224763214588165e-01</leafValues></_>
    <_>
      <internalNodes>
        0 -1 357949 -5.7361344261153135e-06</internalNodes>
      <leafValues>
        2.5381407141685486e-01 -2.3457063734531403e-01</leafValues></_>
    <_>
      <internalNodes>
        0 -1 443736 -6.3438010402023792e-03</internalNodes>
      <leafValues>
        -7.1151316165924072e-02 6.3882738351821899e-01</leafValues></_>
    <_>
      <internalNodes>
        0 -1 642799 -7.5369249098002911e-03</internalNodes>
      <leafValues>
        8.4480263292789459e-02 -8.3082818984985352e-01</leafValues></_>
    <_>
      <internalNodes>
        0 -1 445688 -4.7410717234015465e-03</internalNodes>
      <leafValues>
        6.2692832946777344e-01 -9.5967695116996765e-02</leafValues></_>
    <_>
      <internalNodes>
        0 -1 632472 1.2349053286015987e-03</internalNodes>
      <leafValues>
        -1.0995825380086899e-01 5.2821767330169678e-01</leafValues></_>
    <_>
      <internalNodes>
        0 -1 380436 4.6252110041677952e-04</internalNodes>
      <leafValues>
        1.9286918640136719e-01 -3.5907691717147827e-01</leafValues></_>
    <_>
      <internalNodes>
        0 -1 418964 -2.0419124513864517e-02</internalNodes>
      <leafValues>
        7.5765907764434814e-01 -8.0326482653617859e-02</leafValues></_>
    <_>
      <internalNodes>
        0 -1 696364 -7.8854267485439777e-04</internalNodes>
      <leafValues>
        -3.9683046936988831e-01 1.7497678101062775e-01</leafValues></_>
    <_>
      <internalNodes>
        0 -1 10581 1.2961882166564465e-03</internalNodes>
      <leafValues>
        1.4271989464759827e-01 -4.1338062286376953e-01</leafValues></_>
    <_>
      <internalNodes>
        0 -1 500296 -1.3384348712861538e-03</internalNodes>
      <leafValues>
        3.8938942551612854e-01 -1.6940346360206604e-01</leafValues></_>
    <_>
      <internalNodes>
        0 -1 519896 -9.3119533266872168e-04</internalNodes>
      <leafValues>
        -4.6060264110565186e-01 1.4048872888088226e-01</leafValues></_>
    <_>
      <internalNodes>
        0 -1 187251 -2.1643632499035448e-04</internalNodes>
      <leafValues>
        5.3287529945373535e-01 -1.3527175784111023e-01</leafValues></_>
    <_>
      <internalNodes>
        0 -1 492306 6.6641550511121750e-03</internalNodes>
      <leafValues>
        -1.2964992225170135e-01 5.1717871427536011e-01</leafValues></_>
    <_>
      <internalNodes>
        0 -1 199826 4.3509462557267398e-05</internalNodes>
      <leafValues>
        -3.0586948990821838e-01 2.1800522506237030e-01</leafValues></_>
    <_>
      <internalNodes>
        0 -1 356755 2.6377583853900433e-03</internalNodes>
      <leafValues>
        1.5678022801876068e-01 -4.6587482094764709e-01</leafValues></_>
    <_>
      <internalNodes>
        0 -1 570551 -9.1846472059842199e-05</internalNodes>
      <leafValues>
        3.5898432135581970e-01 -2.0179225504398346e-01</leafValues></_>
    <_>
      <internalNodes>
        0 -1 147196 -5.7309372350573540e-03</internalNodes>
      <leafValues>
        6.4347428083419800e-01 -9.1299407184123993e-02</leafValues></_></weakClassifiers></stage37>
</opencv_storage>
