<?xml version="1.0"?>
<opencv_storage>
<stage38>
  <maxWeakCount>24</maxWeakCount>
  <stageThreshold>-5.1275098323822021e-01</stageThreshold>
  <weakClassifiers>
    <_>
      <internalNodes>
        0 -1 567713 -7.8974708914756775e-02</internalNodes>
      <leafValues>
        -7.6923078298568726e-01 3.8327527046203613e-01</leafValues></_>
    <_>
      <internalNodes>
        0 -1 550052 -7.9777598381042480e-02</internalNodes>
      <leafValues>
        3.3961138129234314e-01 -2.3301230370998383e-01</leafValues></_>
    <_>
      <internalNodes>
        0 -1 476016 4.6316167572513223e-04</internalNodes>
      <leafValues>
        -1.5315063297748566e-01 4.6231162548065186e-01</leafValues></_>
    <_>
      <internalNodes>
        0 -1 39138 9.1675752773880959e-03</internalNodes>
      <leafValues>
        -1.6350105404853821e-01 4.5380878448486328e-01</leafValues></_>
    <_>
      <internalNodes>
        0 -1 577655 -2.8062989003956318e-03</internalNodes>
      <leafValues>
        3.7009736895561218e-01 -1.5312345325946808e-01</leafValues></_>
    <_>
      <internalNodes>
        0 -1 249552 4.1274597606388852e-05</internalNodes>
      <leafValues>
        2.3774738609790802e-01 -2.6328808069229126e-01</leafValues></_>
    <_>
      <internalNodes>
        0 -1 317610 -1.5847135800868273e-03</internalNodes>
      <leafValues>
        -8.1540369987487793e-01 9.1407217085361481e-02</leafValues></_>
    <_>
      <internalNodes>
        0 -1 644338 -5.1616737619042397e-03</internalNodes>
      <leafValues>
        6.9593828916549683e-01 -1.1834590137004852e-01</leafValues></_>
    <_>
      <internalNodes>
        0 -1 34849 -5.7530897902324796e-04</internalNodes>
      <leafValues>
        -4.8681908845901489e-01 1.4724075794219971e-01</leafValues></_>
    <_>
      <internalNodes>
        0 -1 355808 1.2806417362298816e-04</internalNodes>
      <leafValues>
        -2.0831000804901123e-01 3.2103338837623596e-01</leafValues></_>
    <_>
      <internalNodes>
        0 -1 666960 3.9695398299954832e-05</internalNodes>
      <leafValues>
        -1.9172787666320801e-01 3.5878169536590576e-01</leafValues></_>
    <_>
      <internalNodes>
        0 -1 151898 1.0497103445231915e-02</internalNodes>
      <leafValues>
        -1.4408883452415466e-01 4.4558161497116089e-01</leafValues></_>
    <_>
      <internalNodes>
        0 -1 412540 -5.7911518961191177e-02</internalNodes>
      <leafValues>
        2.4379640817642212e-01 -2.8590720891952515e-01</leafValues></_>
    <_>
      <internalNodes>
        0 -1 189165 3.9446568116545677e-03</internalNodes>
      <leafValues>
        -1.3706289231777191e-01 5.8015650510787964e-01</leafValues></_>
    <_>
      <internalNodes>
        0 -1 273847 1.2842526193708181e-03</internalNodes>
      <leafValues>
        -1.4889125525951385e-01 4.0948465466499329e-01</leafValues></_>
    <_>
      <internalNodes>
        0 -1 272252 -5.3043672814965248e-03</internalNodes>
      <leafValues>
        4.1325929760932922e-01 -1.6380757093429565e-01</leafValues></_>
    <_>
      <internalNodes>
        0 -1 612274 1.6409523086622357e-03</internalNodes>
      <leafValues>
        -8.8659629225730896e-02 7.5857299566268921e-01</leafValues></_>
    <_>
      <internalNodes>
        0 -1 659712 2.0524323917925358e-03</internalNodes>
      <leafValues>
        -6.8601556122303009e-02 7.8482753038406372e-01</leafValues></_>
    <_>
      <internalNodes>
        0 -1 689327 -1.3027539534959942e-04</internalNodes>
      <leafValues>
        3.0466708540916443e-01 -2.0067004859447479e-01</leafValues></_>
    <_>
      <internalNodes>
        0 -1 131384 9.1898115351796150e-04</internalNodes>
      <leafValues>
        1.0120740532875061e-01 -6.8669354915618896e-01</leafValues></_>
    <_>
      <internalNodes>
        0 -1 532182 9.7158488642890006e-05</internalNodes>
      <leafValues>
        -1.9454436004161835e-01 3.1113994121551514e-01</leafValues></_>
    <_>
      <internalNodes>
        0 -1 282044 1.1894430220127106e-01</internalNodes>
      <leafValues>
        -1.1266043782234192e-01 5.3931552171707153e-01</leafValues></_>
    <_>
      <internalNodes>
        0 -1 535903 -6.5510240383446217e-03</internalNodes>
      <leafValues>
        -7.0915395021438599e-01 1.1155951023101807e-01</leafValues></_>
    <_>
      <internalNodes>
        0 -1 507219 -1.0482685267925262e-01</internalNodes>
      <leafValues>
        2.6803538203239441e-01 -2.7035152912139893e-01</leafValues></_></weakClassifiers></stage38>
</opencv_storage>
