<?xml version="1.0"?>
<opencv_storage>
<stage11>
  <maxWeakCount>14</maxWeakCount>
  <stageThreshold>-8.8359498977661133e-01</stageThreshold>
  <weakClassifiers>
    <_>
      <internalNodes>
        0 -1 427127 5.2328586578369141e-02</internalNodes>
      <leafValues>
        -3.4234234690666199e-01 7.3015874624252319e-01</leafValues></_>
    <_>
      <internalNodes>
        0 -1 7617 8.4984168410301208e-02</internalNodes>
      <leafValues>
        -3.8111457228660583e-01 4.4192090630531311e-01</leafValues></_>
    <_>
      <internalNodes>
        0 -1 580746 -4.5510552823543549e-02</internalNodes>
      <leafValues>
        5.4196774959564209e-01 -2.8263315558433533e-01</leafValues></_>
    <_>
      <internalNodes>
        0 -1 618136 -5.8505289256572723e-02</internalNodes>
      <leafValues>
        5.8293598890304565e-01 -2.4836492538452148e-01</leafValues></_>
    <_>
      <internalNodes>
        0 -1 554758 -7.0158563554286957e-02</internalNodes>
      <leafValues>
        8.3642816543579102e-01 -1.8490992486476898e-01</leafValues></_>
    <_>
      <internalNodes>
        0 -1 461958 -2.8611499816179276e-02</internalNodes>
      <leafValues>
        5.9016066789627075e-01 -2.1516956388950348e-01</leafValues></_>
    <_>
      <internalNodes>
        0 -1 173097 -1.0129951078852173e-05</internalNodes>
      <leafValues>
        3.6389476060867310e-01 -3.3172205090522766e-01</leafValues></_>
    <_>
      <internalNodes>
        0 -1 34033 -4.8289574682712555e-02</internalNodes>
      <leafValues>
        8.2295459508895874e-01 -1.2472274899482727e-01</leafValues></_>
    <_>
      <internalNodes>
        0 -1 57827 8.0852434039115906e-02</internalNodes>
      <leafValues>
        -1.1370546370744705e-01 7.7979171276092529e-01</leafValues></_>
    <_>
      <internalNodes>
        0 -1 318950 -9.3661863356828690e-03</internalNodes>
      <leafValues>
        7.0245063304901123e-01 -1.4710746705532074e-01</leafValues></_>
    <_>
      <internalNodes>
        0 -1 350702 6.5295165404677391e-04</internalNodes>
      <leafValues>
        -2.5068610906600952e-01 4.4090276956558228e-01</leafValues></_>
    <_>
      <internalNodes>
        0 -1 493881 4.3828617781400681e-03</internalNodes>
      <leafValues>
        2.1568866074085236e-01 -5.5131632089614868e-01</leafValues></_>
    <_>
      <internalNodes>
        0 -1 15057 -1.1868961155414581e-01</internalNodes>
      <leafValues>
        6.7805522680282593e-01 -1.5329863131046295e-01</leafValues></_>
    <_>
      <internalNodes>
        0 -1 225095 1.1319392360746861e-03</internalNodes>
      <leafValues>
        1.4957556128501892e-01 -8.0816501379013062e-01</leafValues></_></weakClassifiers></stage11>
</opencv_storage>
