<?xml version="1.0"?>
<opencv_storage>
<stage4>
  <maxWeakCount>7</maxWeakCount>
  <stageThreshold>-1.1779686212539673e+00</stageThreshold>
  <weakClassifiers>
    <_>
      <internalNodes>
        0 -1 496834 -4.6421505510807037e-02</internalNodes>
      <leafValues>
        8.3471071720123291e-01 -4.3459916114807129e-01</leafValues></_>
    <_>
      <internalNodes>
        0 -1 142340 -8.8849976658821106e-02</internalNodes>
      <leafValues>
        -8.3883011341094971e-01 5.0340664386749268e-01</leafValues></_>
    <_>
      <internalNodes>
        0 -1 9608 8.0230161547660828e-02</internalNodes>
      <leafValues>
        -4.8239323496818542e-01 6.9583743810653687e-01</leafValues></_>
    <_>
      <internalNodes>
        0 -1 553287 -2.0043030381202698e-02</internalNodes>
      <leafValues>
        6.1670929193496704e-01 -4.2455655336380005e-01</leafValues></_>
    <_>
      <internalNodes>
        0 -1 112776 6.5105236135423183e-03</internalNodes>
      <leafValues>
        -4.1429522633552551e-01 4.8848217725753784e-01</leafValues></_>
    <_>
      <internalNodes>
        0 -1 638356 2.8954842127859592e-04</internalNodes>
      <leafValues>
        -4.3048816919326782e-01 4.6070304512977600e-01</leafValues></_>
    <_>
      <internalNodes>
        0 -1 160620 2.1845251321792603e-03</internalNodes>
      <leafValues>
        -3.6710375547409058e-01 5.0495713949203491e-01</leafValues></_></weakClassifiers></stage4>
</opencv_storage>
